<?xml version="1.0"?>
<opencv_storage>
<stage9>
  <maxWeakCount>31</maxWeakCount>
  <stageThreshold>-1.6332522630691528e+00</stageThreshold>
  <weakClassifiers>
    <_>
      <internalNodes>
        0 -1 129227 2.9089882969856262e-02</internalNodes>
      <leafValues>
        -5.1576763391494751e-01 4.3720930814743042e-01</leafValues></_>
    <_>
      <internalNodes>
        0 -1 70296 -9.9168037995696068e-03</internalNodes>
      <leafValues>
        7.4806851148605347e-01 -1.4710806310176849e-01</leafValues></_>
    <_>
      <internalNodes>
        0 -1 87064 3.3537022769451141e-02</internalNodes>
      <leafValues>
        -1.5258684754371643e-01 5.1543575525283813e-01</leafValues></_>
    <_>
      <internalNodes>
        0 -1 156695 7.4406927451491356e-03</internalNodes>
      <leafValues>
        -1.3826027512550354e-01 5.9418791532516479e-01</leafValues></_>
    <_>
      <internalNodes>
        0 -1 23804 -1.4203371480107307e-02</internalNodes>
      <leafValues>
        2.4094021320343018e-01 -3.4971082210540771e-01</leafValues></_>
    <_>
      <internalNodes>
        0 -1 26532 2.2306365892291069e-02</internalNodes>
      <leafValues>
        1.3372503221035004e-01 -6.7254269123077393e-01</leafValues></_>
    <_>
      <internalNodes>
        0 -1 62493 8.4133423864841461e-02</internalNodes>
      <leafValues>
        -2.0928239822387695e-01 3.0553209781646729e-01</leafValues></_>
    <_>
      <internalNodes>
        0 -1 10812 -6.2577649950981140e-02</internalNodes>
      <leafValues>
        5.3078246116638184e-01 -7.9891152679920197e-02</leafValues></_>
    <_>
      <internalNodes>
        0 -1 57134 1.1023578234016895e-02</internalNodes>
      <leafValues>
        -1.9995810091495514e-01 3.7553539872169495e-01</leafValues></_>
    <_>
      <internalNodes>
        0 -1 160490 7.0916460826992989e-03</internalNodes>
      <leafValues>
        -1.0085500031709671e-01 5.0383681058883667e-01</leafValues></_>
    <_>
      <internalNodes>
        0 -1 130546 -1.3743177987635136e-05</internalNodes>
      <leafValues>
        2.0630007982254028e-01 -3.6091417074203491e-01</leafValues></_>
    <_>
      <internalNodes>
        0 -1 128057 -1.8710050499066710e-03</internalNodes>
      <leafValues>
        -6.5883290767669678e-01 8.4141708910465240e-02</leafValues></_>
    <_>
      <internalNodes>
        0 -1 127001 -1.4877148714731447e-05</internalNodes>
      <leafValues>
        1.2442516535520554e-01 -4.3718942999839783e-01</leafValues></_>
    <_>
      <internalNodes>
        0 -1 25908 -1.3363459147512913e-02</internalNodes>
      <leafValues>
        4.7632950544357300e-01 -1.2881021201610565e-01</leafValues></_>
    <_>
      <internalNodes>
        0 -1 133761 -1.9858381710946560e-03</internalNodes>
      <leafValues>
        -7.5183320045471191e-01 8.0394394695758820e-02</leafValues></_>
    <_>
      <internalNodes>
        0 -1 44278 3.6513879895210266e-02</internalNodes>
      <leafValues>
        -1.0344836115837097e-01 5.7408380508422852e-01</leafValues></_>
    <_>
      <internalNodes>
        0 -1 162204 -1.9211179460398853e-04</internalNodes>
      <leafValues>
        -4.0662431716918945e-01 1.3441763818264008e-01</leafValues></_>
    <_>
      <internalNodes>
        0 -1 41418 1.8932275474071503e-02</internalNodes>
      <leafValues>
        -1.5335017442703247e-01 3.7600034475326538e-01</leafValues></_>
    <_>
      <internalNodes>
        0 -1 9528 4.8482988495379686e-04</internalNodes>
      <leafValues>
        1.8809780478477478e-01 -2.7158081531524658e-01</leafValues></_>
    <_>
      <internalNodes>
        0 -1 90230 1.0136540979146957e-02</internalNodes>
      <leafValues>
        -1.4242854714393616e-01 3.8426032662391663e-01</leafValues></_>
    <_>
      <internalNodes>
        0 -1 160353 7.0417643291875720e-04</internalNodes>
      <leafValues>
        1.6900497674942017e-01 -2.9856392741203308e-01</leafValues></_>
    <_>
      <internalNodes>
        0 -1 23740 -2.7542859315872192e-02</internalNodes>
      <leafValues>
        3.8252660632133484e-01 -1.2620297074317932e-01</leafValues></_>
    <_>
      <internalNodes>
        0 -1 54839 3.6415113136172295e-03</internalNodes>
      <leafValues>
        -1.3786713778972626e-01 3.1247594952583313e-01</leafValues></_>
    <_>
      <internalNodes>
        0 -1 98732 -1.0981098748743534e-03</internalNodes>
      <leafValues>
        -4.0078786015510559e-01 1.1229070276021957e-01</leafValues></_>
    <_>
      <internalNodes>
        0 -1 107452 1.2420042185112834e-03</internalNodes>
      <leafValues>
        -1.9166332483291626e-01 2.3927029967308044e-01</leafValues></_>
    <_>
      <internalNodes>
        0 -1 38224 -1.1787529729190283e-05</internalNodes>
      <leafValues>
        2.1535833179950714e-01 -2.2738467156887054e-01</leafValues></_>
    <_>
      <internalNodes>
        0 -1 77571 -2.4278394877910614e-02</internalNodes>
      <leafValues>
        -4.7744405269622803e-01 8.9034199714660645e-02</leafValues></_>
    <_>
      <internalNodes>
        0 -1 71549 2.4766783099039458e-05</internalNodes>
      <leafValues>
        -2.1156498789787292e-01 2.0525395870208740e-01</leafValues></_>
    <_>
      <internalNodes>
        0 -1 28109 -1.3681223616003990e-02</internalNodes>
      <leafValues>
        3.1583565473556519e-01 -1.2374377250671387e-01</leafValues></_>
    <_>
      <internalNodes>
        0 -1 10325 1.8129473924636841e-01</internalNodes>
      <leafValues>
        -1.4984211325645447e-01 3.1884357333183289e-01</leafValues></_>
    <_>
      <internalNodes>
        0 -1 18605 1.1855116486549377e-01</internalNodes>
      <leafValues>
        8.1186108291149139e-02 -6.8611025810241699e-01</leafValues></_></weakClassifiers></stage9>
</opencv_storage>
